svm_type c_svc
kernel_type rbf
gamma 0.5
nr_class 2
total_sv 155
rho -0.26018725713157714
label 1 -1
nr_sv 95 60
SV
0.024617214850317773 1:4.470304 2:69.556413 
0.214311927920489 1:4.778757 2:73.851066 
0.42745635918404279 1:4.021914 2:74.056374 
0.17034819133681778 1:3.657996 2:72.889205 
0.36052861594156954 1:3.922199 2:71.898865 
0.076426761219047012 1:5.252011 2:71.041001 
0.52469016336454222 1:4.238277 2:69.96762 
0.04558426007227185 1:5.537597 2:70.939334 
0.3627700743521905 1:5.426003 2:72.464196 
0.53622684156070366 1:31.800555 2:69.86441 
0.50880644144269127 1:30.365353 2:66.174256 
0.30985715805904607 1:31.62706 2:66.64106 
0.037936958906348198 1:30.342208 2:69.425605 
0.33915100850972735 1:30.274544 2:70.745379 
0.3874256825116224 1:30.386228 2:67.899196 
0.5052849305773639 1:29.303681 2:70.140012 
0.40640571624147914 1:32.034563 2:68.047721 
0.60656838074304509 1:32.873981 2:79.726692 
0.096162204545349961 1:30.216191 2:81.100433 
0.50456204024948414 1:30.219297 2:82.242341 
0.55780943011916495 1:29.325652 2:79.592973 
0.50411707984473741 1:30.958857 2:77.321521 
0.49347942573012482 1:31.736879 2:81.882311 
0.28032499386656812 1:31.354474 2:79.460451 
0.31809110316790923 1:30.01913 2:77.793317 
0.091137444158617173 1:30.267917 2:80.414822 
0.048951410395903269 1:31.206841 2:80.507716 
0.027786072714542098 1:30.940359 2:78.839243 
0.21650790789531518 1:40.29167 2:18.420593 
0.61095676986702396 1:37.102493 2:17.835639 
0.5896089904402243 1:40.010705 2:22.730058 
0.18278443906302785 1:39.648843 2:17.598601 
0.31607216740956323 1:38.213342 2:19.282205 
0.18487713139118928 1:38.723311 2:17.777839 
0.64589815072256718 1:39.672144 2:15.781725 
0.63111462974988208 1:37.419689 2:21.144496 
0.29850229638946318 1:40.045215 2:20.591381 
0.10715791302483471 1:38.716584 2:19.961841 
0.33103173717343737 1:40.362355 2:18.992806 
0.051044105846597569 1:39.444695 2:16.69687 
0.12612975677410918 1:39.189972 2:21.481608 
0.18645768429398119 1:40.298959 2:21.374062 
0.29877476038315531 1:21.222418 2:11.730146 
0.2553050637367279 1:22.453434 2:11.120416 
0.53640400775449271 1:24.214993 2:10.349057 
0.16065919363188658 1:23.975868 2:11.714427 
0.57317472795489111 1:22.673834 2:7.790331 
0.22655486083373669 1:23.288808 2:8.89535 
0.05175786845825317 1:21.268878 2:9.867654 
0.30161147400107324 1:22.003758 2:9.518572 
0.52328895166635292 1:20.429632 2:10.456596 
0.61565214225983755 1:21.606732 2:13.480729 
0.54433201686927979 1:23.711434 2:12.823616 
0.51149764235775053 1:9.209386 2:5.785887 
0.37947051722841679 1:7.072132 2:3.675158 
0.4463610809031191 1:6.152685 2:4.732316 
0.30328056457940999 1:6.589388 2:6.147742 
0.57297907963550965 1:7.812084 2:8.37965 
0.45179922565449382 1:8.90402 2:3.849087 
0.16188298267260892 1:8.24084 2:3.451975 
0.088826396350217857 1:7.959164 2:5.542842 
0.2451298359016307 1:6.945258 2:6.851823 
0.26120660717467525 1:8.565784 2:7.16357 
0.39753616549499193 1:22.102287 2:86.798155 
0.3015522945223692 1:20.424008 2:86.356715 
0.018978619947834213 1:22.584732 2:90.533574 
0.0098105899813055522 1:22.440806 2:89.304365 
0.067447486598254933 1:21.344277 2:88.498312 
0.59058894515583948 1:21.343556 2:85.01695 
0.55550897804110488 1:20.393269 2:90.216733 
0.63323692596564407 1:22.486908 2:91.200171 
0.37929086014329894 1:19.965724 2:87.573922 
0.069101662479828768 1:22.337327 2:87.494409 
0.29025876287928198 1:20.067047 2:88.729782 
0.42574622855437927 1:22.72419 2:88.530591 
0.19404177600024172 1:22.375646 2:89.39612 
0.53270232777715398 1:9.476417 2:43.347942 
0.12239736606937146 1:9.244857 2:42.105085 
0.47283905091001543 1:8.153448 2:39.183591 
0.22951398794897498 1:7.138492 2:40.794317 
0.52970460108226836 1:6.994989 2:43.443944 
0.25847774608837215 1:7.077675 2:42.402635 
0.30716106925368847 1:9.136556 2:41.293724 
0.00058210425424875221 1:8.629221 2:43.366108 
0.60232342739806155 1:10.109781 2:39.830196 
0.34586581188205029 1:6.997269 2:40.00331 
0.09241717033094983 1:8.871954 2:43.450496 
0.086481699420903599 1:8.102133 2:41.340563 
0.39531492214855996 1:6.998532 2:71.315773 
0.097216902405647981 1:6.213745 2:69.244516 
0.010383736242567542 1:5.808107 2:71.654542 
0.29395828228932608 1:6.785545 2:70.106678 
0.10842107451614552 1:7.187165 2:70.886311 
0.65262527789742608 1:7.341444 2:67.577564 
0.50627446803643739 1:5.444702 2:68.333909 
-0.21040173138503135 1:84.005079 2:25.495883 
-0.92578586660439499 1:81.905872 2:26.747538 
-0.81981799707274039 1:83.598286 2:27.379817 
-0.28949567642996055 1:83.355258 2:22.854575 
-0.67626414666265855 1:84.298993 2:22.672308 
-0.35413086810736394 1:84.455761 2:23.386009 
-0.77091992761577632 1:82.015507 2:24.819478 
-0.1437572170793984 1:83.069953 2:23.169319 
-0.53660126291631038 1:84.17666 2:26.127113 
-0.4315274033707695 1:83.72618 2:24.674617 
-1 1:81.283647 2:22.988301 
-0.94699148857757054 1:64.995354 2:79.901312 
-0.86286636250550652 1:63.804821 2:82.206396 
-0.93270799179804298 1:62.096465 2:82.567979 
-0.2797683708150967 1:62.195941 2:80.525938 
-0.29444299261168883 1:61.966219 2:78.375938 
-0.095167397691548597 1:63.148104 2:80.010307 
-0.031442715513408374 1:61.66091 2:78.933055 
-0.64749090437462165 1:63.899053 2:78.368357 
-0.014958647834858712 1:63.790789 2:80.281417 
-0.19329738982445469 1:64.397839 2:78.736674 
-0.99235460408635989 1:62.686078 2:76.731865 
-0.0420798941450383 1:62.242947 2:81.570666 
-0.28753252041782468 1:62.054138 2:77.942546 
-0.066826747593048644 1:63.06091 2:82.782053 
-0.79340731676425091 1:61.479413 2:79.653062 
-0.36683987449110489 1:63.194766 2:80.555104 
-0.36244479632544468 1:87.199914 2:68.422712 
-0.44229110206246114 1:87.886944 2:69.02543 
-0.73260526418005956 1:86.562521 2:68.835433 
-0.80075759525907853 1:85.969948 2:71.461799 
-0.93483566642321825 1:88.354356 2:70.549852 
-0.092486766711489837 1:86.874301 2:71.000711 
-0.46761706340144493 1:86.456691 2:72.278838 
-1 1:88.186999 2:73.134818 
-0.1182012438414876 1:87.669142 2:71.911486 
-0.93030476369231374 1:89.018159 2:5.482887 
-0.56291008408902288 1:88.268485 2:3.823981 
-0.73288802180213475 1:86.296719 2:2.750878 
-0.54448713534058968 1:87.66706 2:6.021448 
-0.8945478549553687 1:86.206468 2:5.73998 
-0.52047764502442972 1:88.283253 2:2.569012 
-0.50365026279671476 1:86.540764 2:4.21372 
-0.66506627808552177 1:87.409855 2:1.817166 
-0.17329774205059753 1:73.048179 2:84.313075 
-0.28725919989624665 1:72.403584 2:89.296738 
-0.013233076980658093 1:72.500309 2:85.896074 
-0.11370093820372934 1:72.787222 2:88.59098 
-0.083237634746993874 1:72.505613 2:86.179083 
-0.49104853597055098 1:74.246424 2:86.292409 
-0.66925349355983821 1:73.274847 2:87.368218 
-0.48172190771919576 1:71.199456 2:87.821738 
-0.68992428436028475 1:70.981931 2:86.575457 
-0.27373374315273835 1:71.603558 2:85.660422 
-0.72234707243710017 1:74.141382 2:85.35579 
-0.63304974535422898 1:71.959387 2:84.709806 
-1 1:72.712863 2:83.060929 
-0.051625289843407626 1:72.985965 2:87.804589 
-1 1:73.13232 2:90.093921 
-0.336789368795817 1:71.67893 2:88.316251 
